digraph Tree {
node [shape=box] ;
0 [label="X[4] <= 0.5\nmse = 146542766.494\nsamples = 1338\nvalue = 13270.422"] ;
1 [label="X[0] <= 42.5\nmse = 35891656.003\nsamples = 1064\nvalue = 8434.268"] ;
0 -> 1 [labeldistance=2.5, labelangle=45, headlabel="True"] ;
2 [label="X[2] <= 0.5\nmse = 22145208.607\nsamples = 596\nvalue = 5398.85"] ;
1 -> 2 ;
3 [label="mse = 16936983.559\nsamples = 253\nvalue = 3850.841"] ;
2 -> 3 ;
4 [label="mse = 22915523.402\nsamples = 343\nvalue = 6540.675"] ;
2 -> 4 ;
5 [label="X[0] <= 51.5\nmse = 26721037.099\nsamples = 468\nvalue = 12299.887"] ;
1 -> 5 ;
6 [label="mse = 20456563.503\nsamples = 199\nvalue = 10193.097"] ;
5 -> 6 ;
7 [label="mse = 25642708.343\nsamples = 269\nvalue = 13858.442"] ;
5 -> 7 ;
8 [label="X[1] <= 30.01\nmse = 132721153.136\nsamples = 274\nvalue = 32050.232"] ;
0 -> 8 [labeldistance=2.5, labelangle=-45, headlabel="False"] ;
9 [label="X[0] <= 41.0\nmse = 25281960.654\nsamples = 130\nvalue = 21369.223"] ;
8 -> 9 ;
10 [label="mse = 12049437.126\nsamples = 73\nvalue = 18474.022"] ;
9 -> 10 ;
11 [label="mse = 17745345.573\nsamples = 57\nvalue = 25077.113"] ;
9 -> 11 ;
12 [label="X[0] <= 41.5\nmse = 33743125.229\nsamples = 144\nvalue = 41692.809"] ;
8 -> 12 ;
13 [label="mse = 19630324.142\nsamples = 78\nvalue = 38354.292"] ;
12 -> 13 ;
14 [label="mse = 21682580.293\nsamples = 66\nvalue = 45638.329"] ;
12 -> 14 ;
}
